-9.910690784454345703e-02,-4.963634610176086426e-01,2.226777076721191406e-01,3.455046415328979492e-01,-6.051425337791442871e-01,-5.190550684928894043e-01,-1.254289448261260986e-01,-1.355903148651123047e+00,1.084817409515380859e+00,-1.047241985797882080e-01,1.438033223152160645e+00,-8.303844928741455078e-02
-4.977355301380157471e-01,2.421503067016601562e-01,-3.278507888317108154e-01,3.104974627494812012e-01,-1.158986091613769531e+00,-2.638195455074310303e-01,1.091090440750122070e-01,-9.071358442306518555e-01,-6.732379198074340820e-01,-1.654096841812133789e-01,7.380768060684204102e-01,-2.435034811496734619e-01
-3.045415580272674561e-01,4.289371371269226074e-01,-4.812157154083251953e-01,-1.230350136756896973e-01,-1.429010778665542603e-01,-6.906128525733947754e-01,-4.685766100883483887e-01,1.014735221862792969e+00,-8.756345510482788086e-01,-6.896671056747436523e-01,1.488424777984619141e+00,4.540812969207763672e-02
-3.085533082485198975e-01,-9.696337580680847168e-02,-4.722066521644592285e-01,-5.463543534278869629e-01,8.656491339206695557e-02,2.077682018280029297e-01,-1.104714572429656982e-01,1.080019548535346985e-01,1.406236290931701660e-01,4.028393328189849854e-02,-4.216975718736648560e-02,-3.299196958541870117e-01
-4.853255450725555420e-01,-5.233924984931945801e-01,-3.839868009090423584e-01,-3.648431301116943359e-01,-5.348585247993469238e-01,6.460298597812652588e-02,-1.031177341938018799e-01,5.625401139259338379e-01,-1.239814236760139465e-01,2.602255344390869141e-01,1.225153088569641113e+00,-4.113514721393585205e-01
1.254190206527709961e-01,-3.963023424148559570e-02,8.375054597854614258e-02,3.921635746955871582e-01,-1.553110957145690918e+00,-3.746626615524291992e+00,-4.520601332187652588e-01,-2.425413846969604492e+00,2.733662128448486328e+00,-1.237078309059143066e+00,-9.360350370407104492e-01,3.344913721084594727e-01
1.671054959297180176e-01,1.009285449981689453e-03,3.504424691200256348e-01,3.940135836601257324e-01,-1.007167339324951172e+00,-3.668866872787475586e+00,-1.037823855876922607e-01,-1.427266597747802734e+00,2.386965036392211914e+00,-8.912013173103332520e-01,7.189623713493347168e-01,1.969076395034790039e-01
